digraph Tree {
node [shape=box] ;
0 [label="X[0] <= 1.9881\nmse = 0.0319\nsamples = 8000\nvalue = 0.033"] ;
1 [label="X[0] <= 1.3464\nmse = 0.0162\nsamples = 7766\nvalue = 0.0165"] ;
0 -> 1 [labeldistance=2.5, labelangle=45, headlabel="True"] ;
2 [label="X[0] <= 0.9155\nmse = 0.0066\nsamples = 7229\nvalue = 0.0066"] ;
1 -> 2 ;
3 [label="X[0] <= 0.2558\nmse = 0.0031\nsamples = 6535\nvalue = 0.0031"] ;
2 -> 3 ;
4 [label="X[0] <= -0.3783\nmse = 0.0006\nsamples = 4859\nvalue = 0.0006"] ;
3 -> 4 ;
5 [label="mse = 0.0\nsamples = 2961\nvalue = 0.0"] ;
4 -> 5 ;
6 [label="mse = 0.0016\nsamples = 1898\nvalue = 0.0016"] ;
4 -> 6 ;
7 [label="X[0] <= 0.2559\nmse = 0.01\nsamples = 1676\nvalue = 0.0101"] ;
3 -> 7 ;
8 [label="mse = 0.0\nsamples = 1\nvalue = 1.0"] ;
7 -> 8 ;
9 [label="mse = 0.0095\nsamples = 1675\nvalue = 0.0096"] ;
7 -> 9 ;
10 [label="X[0] <= 0.916\nmse = 0.0387\nsamples = 694\nvalue = 0.0403"] ;
2 -> 10 ;
11 [label="mse = 0.0\nsamples = 1\nvalue = 1.0"] ;
10 -> 11 ;
12 [label="X[1] <= 0.0893\nmse = 0.0374\nsamples = 693\nvalue = 0.039"] ;
10 -> 12 ;
13 [label="mse = 0.0274\nsamples = 390\nvalue = 0.0282"] ;
12 -> 13 ;
14 [label="mse = 0.05\nsamples = 303\nvalue = 0.0528"] ;
12 -> 14 ;
15 [label="X[0] <= 1.7885\nmse = 0.1268\nsamples = 537\nvalue = 0.149"] ;
1 -> 15 ;
16 [label="X[0] <= 1.3505\nmse = 0.1071\nsamples = 410\nvalue = 0.122"] ;
15 -> 16 ;
17 [label="X[0] <= 1.3494\nmse = 0.24\nsamples = 5\nvalue = 0.6"] ;
16 -> 17 ;
18 [label="mse = 0.2222\nsamples = 3\nvalue = 0.3333"] ;
17 -> 18 ;
19 [label="mse = 0.0\nsamples = 2\nvalue = 1.0"] ;
17 -> 19 ;
20 [label="X[1] <= 2.0727\nmse = 0.1026\nsamples = 405\nvalue = 0.116"] ;
16 -> 20 ;
21 [label="mse = 0.0981\nsamples = 399\nvalue = 0.1103"] ;
20 -> 21 ;
22 [label="mse = 0.25\nsamples = 6\nvalue = 0.5"] ;
20 -> 22 ;
23 [label="X[0] <= 1.7905\nmse = 0.1804\nsamples = 127\nvalue = 0.2362"] ;
15 -> 23 ;
24 [label="mse = 0.0\nsamples = 1\nvalue = 1.0"] ;
23 -> 24 ;
25 [label="X[0] <= 1.9777\nmse = 0.1772\nsamples = 126\nvalue = 0.2302"] ;
23 -> 25 ;
26 [label="mse = 0.1864\nsamples = 117\nvalue = 0.2479"] ;
25 -> 26 ;
27 [label="mse = 0.0\nsamples = 9\nvalue = 0.0"] ;
25 -> 27 ;
28 [label="X[0] <= 2.3474\nmse = 0.2434\nsamples = 234\nvalue = 0.5812"] ;
0 -> 28 [labeldistance=2.5, labelangle=-45, headlabel="False"] ;
29 [label="X[1] <= -0.4586\nmse = 0.2462\nsamples = 137\nvalue = 0.438"] ;
28 -> 29 ;
30 [label="X[0] <= 2.1487\nmse = 0.218\nsamples = 81\nvalue = 0.321"] ;
29 -> 30 ;
31 [label="X[2] <= 0.4511\nmse = 0.1844\nsamples = 41\nvalue = 0.2439"] ;
30 -> 31 ;
32 [label="mse = 0.1875\nsamples = 4\nvalue = 0.75"] ;
31 -> 32 ;
33 [label="mse = 0.1534\nsamples = 37\nvalue = 0.1892"] ;
31 -> 33 ;
34 [label="X[0] <= 2.1563\nmse = 0.24\nsamples = 40\nvalue = 0.4"] ;
30 -> 34 ;
35 [label="mse = 0.0\nsamples = 2\nvalue = 1.0"] ;
34 -> 35 ;
36 [label="mse = 0.2327\nsamples = 38\nvalue = 0.3684"] ;
34 -> 36 ;
37 [label="X[0] <= 2.1795\nmse = 0.2385\nsamples = 56\nvalue = 0.6071"] ;
29 -> 37 ;
38 [label="X[0] <= 2.007\nmse = 0.2493\nsamples = 38\nvalue = 0.5263"] ;
37 -> 38 ;
39 [label="mse = 0.1224\nsamples = 7\nvalue = 0.8571"] ;
38 -> 39 ;
40 [label="mse = 0.2477\nsamples = 31\nvalue = 0.4516"] ;
38 -> 40 ;
41 [label="X[0] <= 2.3352\nmse = 0.1728\nsamples = 18\nvalue = 0.7778"] ;
37 -> 41 ;
42 [label="mse = 0.1453\nsamples = 17\nvalue = 0.8235"] ;
41 -> 42 ;
43 [label="mse = 0.0\nsamples = 1\nvalue = 0.0"] ;
41 -> 43 ;
44 [label="X[0] <= 2.4853\nmse = 0.1696\nsamples = 97\nvalue = 0.7835"] ;
28 -> 44 ;
45 [label="X[0] <= 2.3871\nmse = 0.2304\nsamples = 25\nvalue = 0.64"] ;
44 -> 45 ;
46 [label="mse = 0.0\nsamples = 5\nvalue = 1.0"] ;
45 -> 46 ;
47 [label="X[1] <= -0.1333\nmse = 0.2475\nsamples = 20\nvalue = 0.55"] ;
45 -> 47 ;
48 [label="mse = 0.2314\nsamples = 11\nvalue = 0.3636"] ;
47 -> 48 ;
49 [label="mse = 0.1728\nsamples = 9\nvalue = 0.7778"] ;
47 -> 49 ;
50 [label="X[1] <= -1.8271\nmse = 0.1389\nsamples = 72\nvalue = 0.8333"] ;
44 -> 50 ;
51 [label="mse = 0.0\nsamples = 1\nvalue = 0.0"] ;
50 -> 51 ;
52 [label="X[1] <= 0.0938\nmse = 0.1309\nsamples = 71\nvalue = 0.8451"] ;
50 -> 52 ;
53 [label="mse = 0.1576\nsamples = 51\nvalue = 0.8039"] ;
52 -> 53 ;
54 [label="mse = 0.0475\nsamples = 20\nvalue = 0.95"] ;
52 -> 54 ;
}